Language model created by QuickLM on Wed Oct 21 00:08:27 EDT 2015
Copyright (c) 1996-2010 Carnegie Mellon University and Alexander I. Rudnicky

The model is in standard ARPA format, designed by Doug Paul while he was at MITRE.

The code that was used to produce this language model is available in Open Source.
Please visit http://www.speech.cs.cmu.edu/tools/ for more information

The (fixed) discount mass is 0.5. The backoffs are computed using the ratio method.
This model based on a corpus of 31 sentences and 48 words

\data\
ngram 1=48
ngram 2=79
ngram 3=63

\1-grams:
-0.9100 </s> -0.3010
-0.9100 <s> -0.2361
-2.4014 ANOTHER -0.2993
-2.4014 BABY -0.2440
-2.4014 BEER -0.2440
-2.4014 BLACKJACK -0.2440
-2.1004 BUST -0.2440
-2.4014 CARDS -0.2440
-2.4014 CASH -0.2993
-2.4014 CHIP -0.2440
-2.4014 COUNTING -0.2993
-2.4014 CUT -0.2993
-2.4014 DECK -0.2440
-2.4014 DOUBLE -0.2976
-2.1004 DOWN -0.2440
-1.9243 EM -0.2923
-2.4014 FACE -0.2440
-2.4014 FIGHT -0.2958
-2.4014 HELLO -0.2993
-2.4014 HIGH -0.2440
-2.1004 HIT -0.2958
-2.1004 HOLD -0.2440
-1.6232 I -0.2834
-2.4014 IT -0.2440
-2.4014 LEG -0.2958
-2.4014 LOOK -0.2993
-2.4014 MADE -0.2993
-1.9243 ME -0.2421
-2.1004 MORE -0.2976
-2.4014 ONE -0.2440
-2.4014 OUT -0.2440
-2.4014 OVER -0.2993
-2.4014 PAY -0.2976
-2.1004 POKER -0.2976
-2.4014 QUIT -0.2440
-2.4014 ROUND -0.2440
-2.1004 SPLIT -0.2440
-2.4014 STACK -0.2958
-2.1004 STAND -0.2440
-2.4014 THE -0.2993
-2.4014 THERE -0.2440
-2.4014 TWENTY -0.2993
-2.1004 UP -0.2440
-2.4014 WE -0.2993
-2.4014 WHISKEY -0.2440
-2.4014 WIN -0.2440
-2.4014 WORLD -0.2440
-2.4014 YAK -0.2958

\2-grams:
-1.7924 <s> ANOTHER 0.0000
-1.7924 <s> BLACKJACK 0.0000
-1.7924 <s> BUST 0.0000
-1.7924 <s> CASH 0.0000
-1.7924 <s> COUNTING 0.0000
-1.7924 <s> CUT 0.0000
-1.7924 <s> DOUBLE 0.0000
-1.7924 <s> FIGHT 0.0000
-1.7924 <s> HELLO 0.0000
-1.4914 <s> HIT 0.0000
-1.7924 <s> HOLD 0.0000
-1.0142 <s> I 0.0000
-1.7924 <s> LEG 0.0000
-1.7924 <s> LOOK 0.0000
-1.4914 <s> MORE 0.0000
-1.7924 <s> PAY 0.0000
-1.4914 <s> POKER 0.0000
-1.7924 <s> SPLIT 0.0000
-1.7924 <s> STACK 0.0000
-1.7924 <s> STAND 0.0000
-1.7924 <s> TWENTY 0.0000
-1.7924 <s> WE 0.0000
-1.7924 <s> YAK 0.0000
-0.3010 ANOTHER ROUND 0.0000
-0.3010 BABY </s> -0.3010
-0.3010 BEER </s> -0.3010
-0.3010 BLACKJACK </s> -0.3010
-0.3010 BUST </s> -0.3010
-0.3010 CARDS </s> -0.3010
-0.3010 CASH OUT 0.0000
-0.3010 CHIP </s> -0.3010
-0.3010 COUNTING CARDS 0.0000
-0.3010 CUT THE 0.0000
-0.3010 DECK </s> -0.3010
-0.3010 DOUBLE DOWN 0.0000
-0.3010 DOWN </s> -0.3010
-0.7782 EM DOWN 0.0000
-0.7782 EM HIGH 0.0000
-0.7782 EM UP 0.0000
-0.3010 FACE </s> -0.3010
-0.3010 FIGHT ME -0.1249
-0.3010 HELLO WORLD 0.0000
-0.3010 HIGH </s> -0.3010
-0.3010 HIT ME 0.0000
-0.3010 HOLD </s> -0.3010
-1.0792 I BUST 0.0000
-1.0792 I HOLD 0.0000
-1.0792 I QUIT 0.0000
-1.0792 I SPLIT 0.0000
-1.0792 I STAND 0.0000
-1.0792 I WIN 0.0000
-0.3010 IT </s> -0.3010
-0.3010 LEG EM -0.2218
-0.3010 LOOK OVER 0.0000
-0.3010 MADE IT 0.0000
-0.4771 ME </s> -0.3010
-0.7782 ME BABY 0.0000
-0.6021 MORE BEER 0.0000
-0.6021 MORE WHISKEY 0.0000
-0.3010 ONE </s> -0.3010
-0.3010 OUT </s> -0.3010
-0.3010 OVER THERE 0.0000
-0.3010 PAY UP 0.0000
-0.6021 POKER CHIP 0.0000
-0.6021 POKER FACE 0.0000
-0.3010 QUIT </s> -0.3010
-0.3010 ROUND </s> -0.3010
-0.3010 SPLIT </s> -0.3010
-0.3010 STACK EM -0.2218
-0.3010 STAND </s> -0.3010
-0.3010 THE DECK 0.0000
-0.3010 THERE </s> -0.3010
-0.3010 TWENTY ONE 0.0000
-0.3010 UP </s> -0.3010
-0.3010 WE MADE 0.0000
-0.3010 WHISKEY </s> -0.3010
-0.3010 WIN </s> -0.3010
-0.3010 WORLD </s> -0.3010
-0.3010 YAK EM -0.2218

\3-grams:
-0.3010 <s> ANOTHER ROUND
-0.3010 <s> BLACKJACK </s>
-0.3010 <s> BUST </s>
-0.3010 <s> CASH OUT
-0.3010 <s> COUNTING CARDS
-0.3010 <s> CUT THE
-0.3010 <s> DOUBLE DOWN
-0.3010 <s> FIGHT ME
-0.3010 <s> HELLO WORLD
-0.3010 <s> HIT ME
-0.3010 <s> HOLD </s>
-1.0792 <s> I BUST
-1.0792 <s> I HOLD
-1.0792 <s> I QUIT
-1.0792 <s> I SPLIT
-1.0792 <s> I STAND
-1.0792 <s> I WIN
-0.3010 <s> LEG EM
-0.3010 <s> LOOK OVER
-0.6021 <s> MORE BEER
-0.6021 <s> MORE WHISKEY
-0.3010 <s> PAY UP
-0.6021 <s> POKER CHIP
-0.6021 <s> POKER FACE
-0.3010 <s> SPLIT </s>
-0.3010 <s> STACK EM
-0.3010 <s> STAND </s>
-0.3010 <s> TWENTY ONE
-0.3010 <s> WE MADE
-0.3010 <s> YAK EM
-0.3010 ANOTHER ROUND </s>
-0.3010 CASH OUT </s>
-0.3010 COUNTING CARDS </s>
-0.3010 CUT THE DECK
-0.3010 DOUBLE DOWN </s>
-0.3010 EM DOWN </s>
-0.3010 EM HIGH </s>
-0.3010 EM UP </s>
-0.3010 FIGHT ME </s>
-0.3010 HELLO WORLD </s>
-0.6021 HIT ME </s>
-0.6021 HIT ME BABY
-0.3010 I BUST </s>
-0.3010 I HOLD </s>
-0.3010 I QUIT </s>
-0.3010 I SPLIT </s>
-0.3010 I STAND </s>
-0.3010 I WIN </s>
-0.3010 LEG EM DOWN
-0.3010 LOOK OVER THERE
-0.3010 MADE IT </s>
-0.3010 ME BABY </s>
-0.3010 MORE BEER </s>
-0.3010 MORE WHISKEY </s>
-0.3010 OVER THERE </s>
-0.3010 PAY UP </s>
-0.3010 POKER CHIP </s>
-0.3010 POKER FACE </s>
-0.3010 STACK EM HIGH
-0.3010 THE DECK </s>
-0.3010 TWENTY ONE </s>
-0.3010 WE MADE IT
-0.3010 YAK EM UP

\end\
