Language model created by QuickLM on Sun Nov 29 00:17:03 EST 2015
Copyright (c) 1996-2010 Carnegie Mellon University and Alexander I. Rudnicky

The model is in standard ARPA format, designed by Doug Paul while he was at MITRE.

The code that was used to produce this language model is available in Open Source.
Please visit http://www.speech.cs.cmu.edu/tools/ for more information

The (fixed) discount mass is 0.5. The backoffs are computed using the ratio method.
This model based on a corpus of 7 sentences and 18 words

\data\
ngram 1=18
ngram 2=23
ngram 3=16

\1-grams:
-0.9331 </s> -0.3010
-0.9331 <s> -0.2472
-1.7782 AND -0.2937
-1.7782 BLACKJACK -0.2472
-1.7782 DOWN -0.2937
-1.7782 EM -0.2937
-1.7782 ER -0.2937
-1.7782 HIT -0.2937
-1.7782 HOLD -0.2472
-1.7782 IT -0.2472
-1.7782 LEG -0.2937
-1.7782 MADE -0.2937
-1.7782 ME -0.2472
-1.7782 RESTART -0.2472
-1.7782 STAND -0.2472
-1.7782 UP -0.2472
-1.7782 WE -0.2937
-1.7782 YAK -0.2937

\2-grams:
-1.1461 <s> BLACKJACK 0.0000
-1.1461 <s> HIT 0.0000
-1.1461 <s> HOLD 0.0000
-1.1461 <s> LEG 0.0000
-1.1461 <s> RESTART 0.0000
-1.1461 <s> STAND 0.0000
-1.1461 <s> WE 0.0000
-0.3010 AND YAK 0.0000
-0.3010 BLACKJACK </s> -0.3010
-0.3010 DOWN AND 0.0000
-0.3010 EM UP 0.0000
-0.3010 ER DOWN 0.0000
-0.3010 HIT ME 0.0000
-0.3010 HOLD </s> -0.3010
-0.3010 IT </s> -0.3010
-0.3010 LEG ER 0.0000
-0.3010 MADE IT 0.0000
-0.3010 ME </s> -0.3010
-0.3010 RESTART </s> -0.3010
-0.3010 STAND </s> -0.3010
-0.3010 UP </s> -0.3010
-0.3010 WE MADE 0.0000
-0.3010 YAK EM 0.0000

\3-grams:
-0.3010 <s> BLACKJACK </s>
-0.3010 <s> HIT ME
-0.3010 <s> HOLD </s>
-0.3010 <s> LEG ER
-0.3010 <s> RESTART </s>
-0.3010 <s> STAND </s>
-0.3010 <s> WE MADE
-0.3010 AND YAK EM
-0.3010 DOWN AND YAK
-0.3010 EM UP </s>
-0.3010 ER DOWN AND
-0.3010 HIT ME </s>
-0.3010 LEG ER DOWN
-0.3010 MADE IT </s>
-0.3010 WE MADE IT
-0.3010 YAK EM UP

\end\
