Language model created by QuickLM on Thu Oct 29 15:37:48 EDT 2015
Copyright (c) 1996-2010 Carnegie Mellon University and Alexander I. Rudnicky

The model is in standard ARPA format, designed by Doug Paul while he was at MITRE.

The code that was used to produce this language model is available in Open Source.
Please visit http://www.speech.cs.cmu.edu/tools/ for more information

The (fixed) discount mass is 0.5. The backoffs are computed using the ratio method.
This model based on a corpus of 26 sentences and 48 words

\data\
ngram 1=48
ngram 2=74
ngram 3=55

\1-grams:
-0.9195 </s> -0.3010
-0.9195 <s> -0.2453
-2.3345 ANOTHER -0.2990
-2.0334 BABY -0.2453
-2.3345 BEER -0.2453
-2.3345 BLACKJACK -0.2453
-2.3345 BUST -0.2453
-2.3345 CARDS -0.2453
-2.3345 CASH -0.2990
-2.3345 CHIP -0.2453
-2.3345 COUNTING -0.2990
-2.3345 CUT -0.2990
-2.3345 DECK -0.2453
-2.3345 DOUBLE -0.2970
-2.0334 DOWN -0.2453
-2.0334 EM -0.2950
-2.3345 ER -0.2970
-2.3345 FACE -0.2453
-2.3345 FIGHT -0.2950
-2.3345 HELLO -0.2990
-2.3345 HIGH -0.2453
-2.3345 HIT -0.2950
-2.3345 HOLD -0.2950
-1.8573 I -0.2950
-2.3345 IT -0.2453
-2.3345 LEG -0.2990
-2.3345 LOOK -0.2990
-2.3345 MADE -0.2990
-1.8573 ME -0.2407
-2.0334 MORE -0.2970
-2.3345 OUT -0.2453
-2.3345 OVER -0.2990
-2.3345 PAY -0.2970
-2.0334 POKER -0.2970
-2.3345 QUIT -0.2453
-2.3345 ROUND -0.2453
-2.3345 SPLIT -0.2453
-2.3345 STACK -0.2970
-2.3345 STAND -0.2453
-2.3345 THE -0.2990
-2.3345 THERE -0.2453
-2.3345 TWENTY-ONE -0.2453
-2.0334 UP -0.2453
-2.3345 WE -0.2990
-2.3345 WHISKEY -0.2453
-2.3345 WIN -0.2453
-2.3345 WORLD -0.2453
-2.3345 YAK -0.2970

\2-grams:
-1.7160 <s> ANOTHER 0.0000
-1.7160 <s> BLACKJACK 0.0000
-1.7160 <s> BUST 0.0000
-1.7160 <s> CASH 0.0000
-1.7160 <s> COUNTING 0.0000
-1.7160 <s> CUT 0.0000
-1.7160 <s> DOUBLE 0.0000
-1.7160 <s> FIGHT 0.0000
-1.7160 <s> HELLO 0.0000
-1.7160 <s> HIT 0.0000
-1.7160 <s> HOLD 0.0000
-1.2389 <s> I 0.0000
-1.7160 <s> LEG 0.0000
-1.7160 <s> LOOK 0.0000
-1.4150 <s> MORE 0.0000
-1.7160 <s> PAY 0.0000
-1.4150 <s> POKER 0.0000
-1.7160 <s> SPLIT 0.0000
-1.7160 <s> STACK 0.0000
-1.7160 <s> TWENTY-ONE 0.0000
-1.7160 <s> WE 0.0000
-1.7160 <s> YAK 0.0000
-0.3010 ANOTHER ROUND 0.0000
-0.3010 BABY </s> -0.3010
-0.3010 BEER </s> -0.3010
-0.3010 BLACKJACK </s> -0.3010
-0.3010 BUST </s> -0.3010
-0.3010 CARDS </s> -0.3010
-0.3010 CASH OUT 0.0000
-0.3010 CHIP </s> -0.3010
-0.3010 COUNTING CARDS 0.0000
-0.3010 CUT THE 0.0000
-0.3010 DECK </s> -0.3010
-0.3010 DOUBLE DOWN 0.0000
-0.3010 DOWN </s> -0.3010
-0.6021 EM HIGH 0.0000
-0.6021 EM UP 0.0000
-0.3010 ER DOWN 0.0000
-0.3010 FACE </s> -0.3010
-0.3010 FIGHT ME -0.2218
-0.3010 HELLO WORLD 0.0000
-0.3010 HIGH </s> -0.3010
-0.3010 HIT ME -0.1249
-0.3010 HOLD ME -0.1249
-0.7782 I QUIT 0.0000
-0.7782 I STAND 0.0000
-0.7782 I WIN 0.0000
-0.3010 IT </s> -0.3010
-0.3010 LEG ER 0.0000
-0.3010 LOOK OVER 0.0000
-0.3010 MADE IT 0.0000
-0.7782 ME </s> -0.3010
-0.4771 ME BABY 0.0000
-0.6021 MORE BEER 0.0000
-0.6021 MORE WHISKEY 0.0000
-0.3010 OUT </s> -0.3010
-0.3010 OVER THERE 0.0000
-0.3010 PAY UP 0.0000
-0.6021 POKER CHIP 0.0000
-0.6021 POKER FACE 0.0000
-0.3010 QUIT </s> -0.3010
-0.3010 ROUND </s> -0.3010
-0.3010 SPLIT </s> -0.3010
-0.3010 STACK EM -0.1761
-0.3010 STAND </s> -0.3010
-0.3010 THE DECK 0.0000
-0.3010 THERE </s> -0.3010
-0.3010 TWENTY-ONE </s> -0.3010
-0.3010 UP </s> -0.3010
-0.3010 WE MADE 0.0000
-0.3010 WHISKEY </s> -0.3010
-0.3010 WIN </s> -0.3010
-0.3010 WORLD </s> -0.3010
-0.3010 YAK EM -0.1761

\3-grams:
-0.3010 <s> ANOTHER ROUND
-0.3010 <s> BLACKJACK </s>
-0.3010 <s> BUST </s>
-0.3010 <s> CASH OUT
-0.3010 <s> COUNTING CARDS
-0.3010 <s> CUT THE
-0.3010 <s> DOUBLE DOWN
-0.3010 <s> FIGHT ME
-0.3010 <s> HELLO WORLD
-0.3010 <s> HIT ME
-0.3010 <s> HOLD ME
-0.7782 <s> I QUIT
-0.7782 <s> I STAND
-0.7782 <s> I WIN
-0.3010 <s> LEG ER
-0.3010 <s> LOOK OVER
-0.6021 <s> MORE BEER
-0.6021 <s> MORE WHISKEY
-0.3010 <s> PAY UP
-0.6021 <s> POKER CHIP
-0.6021 <s> POKER FACE
-0.3010 <s> SPLIT </s>
-0.3010 <s> STACK EM
-0.3010 <s> TWENTY-ONE </s>
-0.3010 <s> WE MADE
-0.3010 <s> YAK EM
-0.3010 ANOTHER ROUND </s>
-0.3010 CASH OUT </s>
-0.3010 COUNTING CARDS </s>
-0.3010 CUT THE DECK
-0.3010 DOUBLE DOWN </s>
-0.3010 EM HIGH </s>
-0.3010 EM UP </s>
-0.3010 ER DOWN </s>
-0.3010 FIGHT ME </s>
-0.3010 HELLO WORLD </s>
-0.3010 HIT ME BABY
-0.3010 HOLD ME BABY
-0.3010 I QUIT </s>
-0.3010 I STAND </s>
-0.3010 I WIN </s>
-0.3010 LEG ER DOWN
-0.3010 LOOK OVER THERE
-0.3010 MADE IT </s>
-0.3010 ME BABY </s>
-0.3010 MORE BEER </s>
-0.3010 MORE WHISKEY </s>
-0.3010 OVER THERE </s>
-0.3010 PAY UP </s>
-0.3010 POKER CHIP </s>
-0.3010 POKER FACE </s>
-0.3010 STACK EM HIGH
-0.3010 THE DECK </s>
-0.3010 WE MADE IT
-0.3010 YAK EM UP

\end\
